digraph Tree {
node [shape=box, style="filled, rounded", color="black", fontname="helvetica"] ;
edge [fontname="helvetica"] ;
0 [label="PR <= 0.154\nentropy = 0.324\nsamples = 6145\nvalue = [577, 9160]\nclass = bot", fillcolor="#45a3e7"] ;
1 [label="LTCount <= 0.5\nentropy = 0.477\nsamples = 2625\nvalue = [426, 3724]\nclass = bot", fillcolor="#50a8e8"] ;
0 -> 1 [labeldistance=2.5, labelangle=45, headlabel="True"] ;
2 [label="PR <= 0.152\nentropy = 0.45\nsamples = 1737\nvalue = [256, 2464]\nclass = bot", fillcolor="#4ea7e8"] ;
1 -> 2 ;
3 [label="Influence <= -0.25\nentropy = 0.451\nsamples = 1734\nvalue = [256, 2460]\nclass = bot", fillcolor="#4ea7e8"] ;
2 -> 3 ;
4 [label="Influence <= -0.346\nentropy = 0.457\nsamples = 1698\nvalue = [256, 2407]\nclass = bot", fillcolor="#4ea7e8"] ;
3 -> 4 ;
5 [label="l/t <= 0.0\nentropy = 0.444\nsamples = 1666\nvalue = [241, 2368]\nclass = bot", fillcolor="#4da7e8"] ;
4 -> 5 ;
6 [label="f/f <= 11.222\nentropy = 0.841\nsamples = 196\nvalue = [80, 217]\nclass = bot", fillcolor="#82c1ef"] ;
5 -> 6 ;
7 [label="batch <= 168371856.0\nentropy = 0.701\nsamples = 138\nvalue = [41, 175]\nclass = bot", fillcolor="#67b4eb"] ;
6 -> 7 ;
8 [label="Degree <= 6.5\nentropy = 0.709\nsamples = 137\nvalue = [41, 171]\nclass = bot", fillcolor="#68b4eb"] ;
7 -> 8 ;
9 [label="n/u <= 0.123\nentropy = 0.881\nsamples = 42\nvalue = [18, 42]\nclass = bot", fillcolor="#8ec7f0"] ;
8 -> 9 ;
10 [label="entropy = 0.0\nsamples = 2\nvalue = [3, 0]\nclass = human", fillcolor="#e58139"] ;
9 -> 10 ;
11 [label="entropy = 0.831\nsamples = 40\nvalue = [15, 42]\nclass = bot", fillcolor="#80c0ee"] ;
9 -> 11 ;
12 [label="l/t <= 0.0\nentropy = 0.613\nsamples = 95\nvalue = [23, 129]\nclass = bot", fillcolor="#5caeea"] ;
8 -> 12 ;
13 [label="entropy = 0.599\nsamples = 94\nvalue = [22, 129]\nclass = bot", fillcolor="#5baee9"] ;
12 -> 13 ;
14 [label="entropy = 0.0\nsamples = 1\nvalue = [1, 0]\nclass = human", fillcolor="#e58139"] ;
12 -> 14 ;
15 [label="entropy = 0.0\nsamples = 1\nvalue = [0, 4]\nclass = bot", fillcolor="#399de5"] ;
7 -> 15 ;
16 [label="sentiment_score <= 0.877\nentropy = 0.999\nsamples = 58\nvalue = [39, 42]\nclass = bot", fillcolor="#f1f8fd"] ;
6 -> 16 ;
17 [label="batch <= 8590770.0\nentropy = 0.999\nsamples = 52\nvalue = [38, 36]\nclass = human", fillcolor="#fef8f5"] ;
16 -> 17 ;
18 [label="sentiment_score <= 0.864\nentropy = 1.0\nsamples = 51\nvalue = [36, 36]\nclass = human", fillcolor="#ffffff"] ;
17 -> 18 ;
19 [label="entropy = 0.999\nsamples = 49\nvalue = [33, 36]\nclass = bot", fillcolor="#eff7fd"] ;
18 -> 19 ;
20 [label="entropy = 0.0\nsamples = 2\nvalue = [3, 0]\nclass = human", fillcolor="#e58139"] ;
18 -> 20 ;
21 [label="entropy = 0.0\nsamples = 1\nvalue = [2, 0]\nclass = human", fillcolor="#e58139"] ;
17 -> 21 ;
22 [label="Out_degre <= 5.5\nentropy = 0.592\nsamples = 6\nvalue = [1, 6]\nclass = bot", fillcolor="#5aade9"] ;
16 -> 22 ;
23 [label="DateDiff <= 9960810.25\nentropy = 0.918\nsamples = 3\nvalue = [1, 2]\nclass = bot", fillcolor="#9ccef2"] ;
22 -> 23 ;
24 [label="entropy = 0.0\nsamples = 2\nvalue = [0, 2]\nclass = bot", fillcolor="#399de5"] ;
23 -> 24 ;
25 [label="entropy = 0.0\nsamples = 1\nvalue = [1, 0]\nclass = human", fillcolor="#e58139"] ;
23 -> 25 ;
26 [label="entropy = 0.0\nsamples = 3\nvalue = [0, 4]\nclass = bot", fillcolor="#399de5"] ;
22 -> 26 ;
27 [label="diff <= 178817.938\nentropy = 0.365\nsamples = 1470\nvalue = [161, 2151]\nclass = bot", fillcolor="#48a4e7"] ;
5 -> 27 ;
28 [label="l/t <= 0.062\nentropy = 0.243\nsamples = 889\nvalue = [56, 1336]\nclass = bot", fillcolor="#41a1e6"] ;
27 -> 28 ;
29 [label="lexical_diversity <= 93.727\nentropy = 0.219\nsamples = 819\nvalue = [45, 1236]\nclass = bot", fillcolor="#40a1e6"] ;
28 -> 29 ;
30 [label="Out_degre <= 4.5\nentropy = 0.458\nsamples = 98\nvalue = [14, 131]\nclass = bot", fillcolor="#4ea7e8"] ;
29 -> 30 ;
31 [label="entropy = 0.339\nsamples = 74\nvalue = [7, 104]\nclass = bot", fillcolor="#46a4e7"] ;
30 -> 31 ;
32 [label="entropy = 0.734\nsamples = 24\nvalue = [7, 27]\nclass = bot", fillcolor="#6cb6ec"] ;
30 -> 32 ;
33 [label="batch <= 88006372.0\nentropy = 0.181\nsamples = 721\nvalue = [31, 1105]\nclass = bot", fillcolor="#3fa0e6"] ;
29 -> 33 ;
34 [label="entropy = 0.186\nsamples = 694\nvalue = [31, 1065]\nclass = bot", fillcolor="#3fa0e6"] ;
33 -> 34 ;
35 [label="entropy = 0.0\nsamples = 27\nvalue = [0, 40]\nclass = bot", fillcolor="#399de5"] ;
33 -> 35 ;
36 [label="l/t <= 0.063\nentropy = 0.466\nsamples = 70\nvalue = [11, 100]\nclass = bot", fillcolor="#4fa8e8"] ;
28 -> 36 ;
37 [label="entropy = 0.0\nsamples = 1\nvalue = [3, 0]\nclass = human", fillcolor="#e58139"] ;
36 -> 37 ;
38 [label="n/u <= 0.85\nentropy = 0.381\nsamples = 69\nvalue = [8, 100]\nclass = bot", fillcolor="#49a5e7"] ;
36 -> 38 ;
39 [label="entropy = 0.556\nsamples = 38\nvalue = [7, 47]\nclass = bot", fillcolor="#56ace9"] ;
38 -> 39 ;
40 [label="entropy = 0.133\nsamples = 31\nvalue = [1, 53]\nclass = bot", fillcolor="#3d9fe5"] ;
38 -> 40 ;
41 [label="batch <= 19882204.0\nentropy = 0.512\nsamples = 581\nvalue = [105, 815]\nclass = bot", fillcolor="#53aae8"] ;
27 -> 41 ;
42 [label="DateDiff <= 11577354.0\nentropy = 0.519\nsamples = 569\nvalue = [105, 797]\nclass = bot", fillcolor="#53aae8"] ;
41 -> 42 ;
43 [label="tweet_similarity <= 14.25\nentropy = 0.663\nsamples = 287\nvalue = [79, 380]\nclass = bot", fillcolor="#62b1ea"] ;
42 -> 43 ;
44 [label="entropy = 0.909\nsamples = 20\nvalue = [12, 25]\nclass = bot", fillcolor="#98ccf1"] ;
43 -> 44 ;
45 [label="entropy = 0.631\nsamples = 267\nvalue = [67, 355]\nclass = bot", fillcolor="#5eafea"] ;
43 -> 45 ;
46 [label="sentiment_score <= 0.046\nentropy = 0.322\nsamples = 282\nvalue = [26, 417]\nclass = bot", fillcolor="#45a3e7"] ;
42 -> 46 ;
47 [label="entropy = 0.0\nsamples = 2\nvalue = [2, 0]\nclass = human", fillcolor="#e58139"] ;
46 -> 47 ;
48 [label="entropy = 0.305\nsamples = 280\nvalue = [24, 417]\nclass = bot", fillcolor="#44a3e6"] ;
46 -> 48 ;
49 [label="entropy = 0.0\nsamples = 12\nvalue = [0, 18]\nclass = bot", fillcolor="#399de5"] ;
41 -> 49 ;
50 [label="n/u <= 0.155\nentropy = 0.852\nsamples = 32\nvalue = [15, 39]\nclass = bot", fillcolor="#85c3ef"] ;
4 -> 50 ;
51 [label="entropy = 0.0\nsamples = 3\nvalue = [0, 8]\nclass = bot", fillcolor="#399de5"] ;
50 -> 51 ;
52 [label="lexical_diversity <= 95.79\nentropy = 0.911\nsamples = 29\nvalue = [15, 31]\nclass = bot", fillcolor="#99ccf2"] ;
50 -> 52 ;
53 [label="entropy = 0.0\nsamples = 7\nvalue = [0, 10]\nclass = bot", fillcolor="#399de5"] ;
52 -> 53 ;
54 [label="batch <= 10839246.5\nentropy = 0.98\nsamples = 22\nvalue = [15, 21]\nclass = bot", fillcolor="#c6e3f8"] ;
52 -> 54 ;
55 [label="l/t <= 0.0\nentropy = 0.99\nsamples = 20\nvalue = [15, 19]\nclass = bot", fillcolor="#d5eafa"] ;
54 -> 55 ;
56 [label="diff <= 550763.634\nentropy = 0.469\nsamples = 5\nvalue = [9, 1]\nclass = human", fillcolor="#e88f4f"] ;
55 -> 56 ;
57 [label="entropy = 0.811\nsamples = 2\nvalue = [3, 1]\nclass = human", fillcolor="#eeab7b"] ;
56 -> 57 ;
58 [label="entropy = 0.0\nsamples = 3\nvalue = [6, 0]\nclass = human", fillcolor="#e58139"] ;
56 -> 58 ;
59 [label="f/f <= 0.841\nentropy = 0.811\nsamples = 15\nvalue = [6, 18]\nclass = bot", fillcolor="#7bbeee"] ;
55 -> 59 ;
60 [label="entropy = 0.0\nsamples = 10\nvalue = [0, 15]\nclass = bot", fillcolor="#399de5"] ;
59 -> 60 ;
61 [label="entropy = 0.918\nsamples = 5\nvalue = [6, 3]\nclass = human", fillcolor="#f2c09c"] ;
59 -> 61 ;
62 [label="entropy = 0.0\nsamples = 2\nvalue = [0, 2]\nclass = bot", fillcolor="#399de5"] ;
54 -> 62 ;
63 [label="entropy = 0.0\nsamples = 36\nvalue = [0, 53]\nclass = bot", fillcolor="#399de5"] ;
3 -> 63 ;
64 [label="entropy = 0.0\nsamples = 3\nvalue = [0, 4]\nclass = bot", fillcolor="#399de5"] ;
2 -> 64 ;
65 [label="lexical_diversity <= 98.113\nentropy = 0.526\nsamples = 888\nvalue = [170, 1260]\nclass = bot", fillcolor="#54aae9"] ;
1 -> 65 ;
66 [label="n/u <= 0.576\nentropy = 0.594\nsamples = 534\nvalue = [124, 739]\nclass = bot", fillcolor="#5aade9"] ;
65 -> 66 ;
67 [label="n/u <= 0.157\nentropy = 0.764\nsamples = 213\nvalue = [74, 259]\nclass = bot", fillcolor="#72b9ec"] ;
66 -> 67 ;
68 [label="Influence <= -0.858\nentropy = 0.563\nsamples = 33\nvalue = [7, 46]\nclass = bot", fillcolor="#57ace9"] ;
67 -> 68 ;
69 [label="entropy = 0.0\nsamples = 1\nvalue = [2, 0]\nclass = human", fillcolor="#e58139"] ;
68 -> 69 ;
70 [label="f/f <= 103.708\nentropy = 0.463\nsamples = 32\nvalue = [5, 46]\nclass = bot", fillcolor="#4fa8e8"] ;
68 -> 70 ;
71 [label="verified <= 0.5\nentropy = 0.332\nsamples = 31\nvalue = [3, 46]\nclass = bot", fillcolor="#46a3e7"] ;
70 -> 71 ;
72 [label="l/t <= 0.007\nentropy = 0.337\nsamples = 30\nvalue = [3, 45]\nclass = bot", fillcolor="#46a4e7"] ;
71 -> 72 ;
73 [label="l/t <= 0.0\nentropy = 0.206\nsamples = 19\nvalue = [1, 30]\nclass = bot", fillcolor="#40a0e6"] ;
72 -> 73 ;
74 [label="entropy = 0.544\nsamples = 5\nvalue = [1, 7]\nclass = bot", fillcolor="#55abe9"] ;
73 -> 74 ;
75 [label="entropy = 0.0\nsamples = 14\nvalue = [0, 23]\nclass = bot", fillcolor="#399de5"] ;
73 -> 75 ;
76 [label="tweet_similarity <= 17.0\nentropy = 0.523\nsamples = 11\nvalue = [2, 15]\nclass = bot", fillcolor="#53aae8"] ;
72 -> 76 ;
77 [label="entropy = 0.0\nsamples = 2\nvalue = [0, 6]\nclass = bot", fillcolor="#399de5"] ;
76 -> 77 ;
78 [label="entropy = 0.684\nsamples = 9\nvalue = [2, 9]\nclass = bot", fillcolor="#65b3eb"] ;
76 -> 78 ;
79 [label="entropy = 0.0\nsamples = 1\nvalue = [0, 1]\nclass = bot", fillcolor="#399de5"] ;
71 -> 79 ;
80 [label="entropy = 0.0\nsamples = 1\nvalue = [2, 0]\nclass = human", fillcolor="#e58139"] ;
70 -> 80 ;
81 [label="batch <= 9525157.5\nentropy = 0.794\nsamples = 180\nvalue = [67, 213]\nclass = bot", fillcolor="#77bced"] ;
67 -> 81 ;
82 [label="Influence <= -0.937\nentropy = 0.8\nsamples = 176\nvalue = [67, 209]\nclass = bot", fillcolor="#78bced"] ;
81 -> 82 ;
83 [label="diff <= 1092828.875\nentropy = 0.722\nsamples = 2\nvalue = [4, 1]\nclass = human", fillcolor="#eca06a"] ;
82 -> 83 ;
84 [label="entropy = 0.0\nsamples = 1\nvalue = [0, 1]\nclass = bot", fillcolor="#399de5"] ;
83 -> 84 ;
85 [label="entropy = 0.0\nsamples = 1\nvalue = [4, 0]\nclass = human", fillcolor="#e58139"] ;
83 -> 85 ;
86 [label="diff <= 948987.969\nentropy = 0.782\nsamples = 174\nvalue = [63, 208]\nclass = bot", fillcolor="#75bbed"] ;
82 -> 86 ;
87 [label="f/f <= 0.475\nentropy = 0.745\nsamples = 159\nvalue = [53, 197]\nclass = bot", fillcolor="#6eb7ec"] ;
86 -> 87 ;
88 [label="f/f <= 0.063\nentropy = 0.231\nsamples = 51\nvalue = [3, 77]\nclass = bot", fillcolor="#41a1e6"] ;
87 -> 88 ;
89 [label="entropy = 0.559\nsamples = 15\nvalue = [3, 20]\nclass = bot", fillcolor="#57ace9"] ;
88 -> 89 ;
90 [label="entropy = 0.0\nsamples = 36\nvalue = [0, 57]\nclass = bot", fillcolor="#399de5"] ;
88 -> 90 ;
91 [label="Influence <= -0.65\nentropy = 0.874\nsamples = 108\nvalue = [50, 120]\nclass = bot", fillcolor="#8bc6f0"] ;
87 -> 91 ;
92 [label="entropy = 0.969\nsamples = 34\nvalue = [21, 32]\nclass = bot", fillcolor="#bbddf6"] ;
91 -> 92 ;
93 [label="entropy = 0.808\nsamples = 74\nvalue = [29, 88]\nclass = bot", fillcolor="#7abdee"] ;
91 -> 93 ;
94 [label="DateDiff <= 12393725.5\nentropy = 0.998\nsamples = 15\nvalue = [10, 11]\nclass = bot", fillcolor="#edf6fd"] ;
86 -> 94 ;
95 [label="sentiment_score <= 0.2\nentropy = 0.954\nsamples = 11\nvalue = [10, 6]\nclass = human", fillcolor="#f5cdb0"] ;
94 -> 95 ;
96 [label="entropy = 0.0\nsamples = 2\nvalue = [0, 3]\nclass = bot", fillcolor="#399de5"] ;
95 -> 96 ;
97 [label="entropy = 0.779\nsamples = 9\nvalue = [10, 3]\nclass = human", fillcolor="#eda774"] ;
95 -> 97 ;
98 [label="entropy = 0.0\nsamples = 4\nvalue = [0, 5]\nclass = bot", fillcolor="#399de5"] ;
94 -> 98 ;
99 [label="entropy = 0.0\nsamples = 4\nvalue = [0, 4]\nclass = bot", fillcolor="#399de5"] ;
81 -> 99 ;
100 [label="batch <= 138959958.0\nentropy = 0.451\nsamples = 321\nvalue = [50, 480]\nclass = bot", fillcolor="#4ea7e8"] ;
66 -> 100 ;
101 [label="f/f <= 6.598\nentropy = 0.451\nsamples = 320\nvalue = [50, 479]\nclass = bot", fillcolor="#4ea7e8"] ;
100 -> 101 ;
102 [label="LTCount <= 7.5\nentropy = 0.342\nsamples = 289\nvalue = [31, 455]\nclass = bot", fillcolor="#46a4e7"] ;
101 -> 102 ;
103 [label="In_degree <= 0.5\nentropy = 0.347\nsamples = 282\nvalue = [31, 446]\nclass = bot", fillcolor="#47a4e7"] ;
102 -> 103 ;
104 [label="l/t <= 0.046\nentropy = 0.347\nsamples = 281\nvalue = [31, 445]\nclass = bot", fillcolor="#47a4e7"] ;
103 -> 104 ;
105 [label="DateDiff <= 1031067.688\nentropy = 0.374\nsamples = 227\nvalue = [28, 360]\nclass = bot", fillcolor="#48a5e7"] ;
104 -> 105 ;
106 [label="entropy = 0.0\nsamples = 1\nvalue = [1, 0]\nclass = human", fillcolor="#e58139"] ;
105 -> 106 ;
107 [label="entropy = 0.365\nsamples = 226\nvalue = [27, 360]\nclass = bot", fillcolor="#48a4e7"] ;
105 -> 107 ;
108 [label="Degree <= 12.0\nentropy = 0.215\nsamples = 54\nvalue = [3, 85]\nclass = bot", fillcolor="#40a0e6"] ;
104 -> 108 ;
109 [label="entropy = 0.353\nsamples = 29\nvalue = [3, 42]\nclass = bot", fillcolor="#47a4e7"] ;
108 -> 109 ;
110 [label="entropy = 0.0\nsamples = 25\nvalue = [0, 43]\nclass = bot", fillcolor="#399de5"] ;
108 -> 110 ;
111 [label="entropy = 0.0\nsamples = 1\nvalue = [0, 1]\nclass = bot", fillcolor="#399de5"] ;
103 -> 111 ;
112 [label="entropy = 0.0\nsamples = 7\nvalue = [0, 9]\nclass = bot", fillcolor="#399de5"] ;
102 -> 112 ;
113 [label="n/u <= 0.826\nentropy = 0.99\nsamples = 31\nvalue = [19, 24]\nclass = bot", fillcolor="#d6ebfa"] ;
101 -> 113 ;
114 [label="Influence <= -0.575\nentropy = 0.976\nsamples = 14\nvalue = [13, 9]\nclass = human", fillcolor="#f7d8c2"] ;
113 -> 114 ;
115 [label="n/u <= 0.703\nentropy = 1.0\nsamples = 12\nvalue = [9, 9]\nclass = human", fillcolor="#ffffff"] ;
114 -> 115 ;
116 [label="Degree <= 17.5\nentropy = 0.65\nsamples = 6\nvalue = [1, 5]\nclass = bot", fillcolor="#61b1ea"] ;
115 -> 116 ;
117 [label="entropy = 0.0\nsamples = 5\nvalue = [0, 5]\nclass = bot", fillcolor="#399de5"] ;
116 -> 117 ;
118 [label="entropy = 0.0\nsamples = 1\nvalue = [1, 0]\nclass = human", fillcolor="#e58139"] ;
116 -> 118 ;
119 [label="LTCount <= 3.0\nentropy = 0.918\nsamples = 6\nvalue = [8, 4]\nclass = human", fillcolor="#f2c09c"] ;
115 -> 119 ;
120 [label="entropy = 0.722\nsamples = 5\nvalue = [8, 2]\nclass = human", fillcolor="#eca06a"] ;
119 -> 120 ;
121 [label="entropy = 0.0\nsamples = 1\nvalue = [0, 2]\nclass = bot", fillcolor="#399de5"] ;
119 -> 121 ;
122 [label="entropy = 0.0\nsamples = 2\nvalue = [4, 0]\nclass = human", fillcolor="#e58139"] ;
114 -> 122 ;
123 [label="f/f <= 6.811\nentropy = 0.863\nsamples = 17\nvalue = [6, 15]\nclass = bot", fillcolor="#88c4ef"] ;
113 -> 123 ;
124 [label="entropy = 0.0\nsamples = 1\nvalue = [1, 0]\nclass = human", fillcolor="#e58139"] ;
123 -> 124 ;
125 [label="lexical_diversity <= 97.265\nentropy = 0.811\nsamples = 16\nvalue = [5, 15]\nclass = bot", fillcolor="#7bbeee"] ;
123 -> 125 ;
126 [label="Influence <= -0.495\nentropy = 0.994\nsamples = 9\nvalue = [5, 6]\nclass = bot", fillcolor="#deeffb"] ;
125 -> 126 ;
127 [label="entropy = 0.811\nsamples = 6\nvalue = [2, 6]\nclass = bot", fillcolor="#7bbeee"] ;
126 -> 127 ;
128 [label="entropy = 0.0\nsamples = 3\nvalue = [3, 0]\nclass = human", fillcolor="#e58139"] ;
126 -> 128 ;
129 [label="entropy = 0.0\nsamples = 7\nvalue = [0, 9]\nclass = bot", fillcolor="#399de5"] ;
125 -> 129 ;
130 [label="entropy = 0.0\nsamples = 1\nvalue = [0, 1]\nclass = bot", fillcolor="#399de5"] ;
100 -> 130 ;
131 [label="Influence <= -0.46\nentropy = 0.406\nsamples = 354\nvalue = [46, 521]\nclass = bot", fillcolor="#4aa6e7"] ;
65 -> 131 ;
132 [label="n/u <= 0.95\nentropy = 0.432\nsamples = 326\nvalue = [46, 473]\nclass = bot", fillcolor="#4ca7e8"] ;
131 -> 132 ;
133 [label="lexical_diversity <= 98.413\nentropy = 0.385\nsamples = 255\nvalue = [31, 381]\nclass = bot", fillcolor="#49a5e7"] ;
132 -> 133 ;
134 [label="Influence <= -0.591\nentropy = 0.092\nsamples = 57\nvalue = [1, 84]\nclass = bot", fillcolor="#3b9ee5"] ;
133 -> 134 ;
135 [label="entropy = 0.0\nsamples = 40\nvalue = [0, 59]\nclass = bot", fillcolor="#399de5"] ;
134 -> 135 ;
136 [label="sentiment_score <= 0.466\nentropy = 0.235\nsamples = 17\nvalue = [1, 25]\nclass = bot", fillcolor="#41a1e6"] ;
134 -> 136 ;
137 [label="Influence <= -0.562\nentropy = 0.544\nsamples = 5\nvalue = [1, 7]\nclass = bot", fillcolor="#55abe9"] ;
136 -> 137 ;
138 [label="entropy = 0.0\nsamples = 1\nvalue = [1, 0]\nclass = human", fillcolor="#e58139"] ;
137 -> 138 ;
139 [label="entropy = 0.0\nsamples = 4\nvalue = [0, 7]\nclass = bot", fillcolor="#399de5"] ;
137 -> 139 ;
140 [label="entropy = 0.0\nsamples = 12\nvalue = [0, 18]\nclass = bot", fillcolor="#399de5"] ;
136 -> 140 ;
141 [label="PR <= 0.152\nentropy = 0.442\nsamples = 198\nvalue = [30, 297]\nclass = bot", fillcolor="#4da7e8"] ;
133 -> 141 ;
142 [label="Degree <= 20.5\nentropy = 0.449\nsamples = 194\nvalue = [30, 290]\nclass = bot", fillcolor="#4da7e8"] ;
141 -> 142 ;
143 [label="verified <= 0.5\nentropy = 0.542\nsamples = 147\nvalue = [30, 211]\nclass = bot", fillcolor="#55abe9"] ;
142 -> 143 ;
144 [label="tweet_similarity <= 8.5\nentropy = 0.568\nsamples = 137\nvalue = [30, 194]\nclass = bot", fillcolor="#58ace9"] ;
143 -> 144 ;
145 [label="entropy = 0.242\nsamples = 28\nvalue = [2, 48]\nclass = bot", fillcolor="#41a1e6"] ;
144 -> 145 ;
146 [label="entropy = 0.637\nsamples = 109\nvalue = [28, 146]\nclass = bot", fillcolor="#5fb0ea"] ;
144 -> 146 ;
147 [label="entropy = 0.0\nsamples = 10\nvalue = [0, 17]\nclass = bot", fillcolor="#399de5"] ;
143 -> 147 ;
148 [label="entropy = 0.0\nsamples = 47\nvalue = [0, 79]\nclass = bot", fillcolor="#399de5"] ;
142 -> 148 ;
149 [label="entropy = 0.0\nsamples = 4\nvalue = [0, 7]\nclass = bot", fillcolor="#399de5"] ;
141 -> 149 ;
150 [label="batch <= 10267749.0\nentropy = 0.585\nsamples = 71\nvalue = [15, 92]\nclass = bot", fillcolor="#59ade9"] ;
132 -> 150 ;
151 [label="LTCount <= 18.5\nentropy = 0.595\nsamples = 70\nvalue = [15, 89]\nclass = bot", fillcolor="#5aaee9"] ;
150 -> 151 ;
152 [label="tweet_similarity <= 3.0\nentropy = 0.602\nsamples = 69\nvalue = [15, 87]\nclass = bot", fillcolor="#5baee9"] ;
151 -> 152 ;
153 [label="diff <= 1176.667\nentropy = 0.954\nsamples = 3\nvalue = [5, 3]\nclass = human", fillcolor="#f5cdb0"] ;
152 -> 153 ;
154 [label="entropy = 0.0\nsamples = 1\nvalue = [0, 2]\nclass = bot", fillcolor="#399de5"] ;
153 -> 154 ;
155 [label="Influence <= -0.705\nentropy = 0.65\nsamples = 2\nvalue = [5, 1]\nclass = human", fillcolor="#ea9a61"] ;
153 -> 155 ;
156 [label="entropy = 0.0\nsamples = 1\nvalue = [5, 0]\nclass = human", fillcolor="#e58139"] ;
155 -> 156 ;
157 [label="entropy = 0.0\nsamples = 1\nvalue = [0, 1]\nclass = bot", fillcolor="#399de5"] ;
155 -> 157 ;
158 [label="DateDiff <= 27621915.0\nentropy = 0.489\nsamples = 66\nvalue = [10, 84]\nclass = bot", fillcolor="#51a9e8"] ;
152 -> 158 ;
159 [label="tweet_similarity <= 13.75\nentropy = 0.597\nsamples = 49\nvalue = [10, 59]\nclass = bot", fillcolor="#5baee9"] ;
158 -> 159 ;
160 [label="entropy = 0.918\nsamples = 6\nvalue = [3, 6]\nclass = bot", fillcolor="#9ccef2"] ;
159 -> 160 ;
161 [label="entropy = 0.52\nsamples = 43\nvalue = [7, 53]\nclass = bot", fillcolor="#53aae8"] ;
159 -> 161 ;
162 [label="entropy = 0.0\nsamples = 17\nvalue = [0, 25]\nclass = bot", fillcolor="#399de5"] ;
158 -> 162 ;
163 [label="entropy = 0.0\nsamples = 1\nvalue = [0, 2]\nclass = bot", fillcolor="#399de5"] ;
151 -> 163 ;
164 [label="entropy = 0.0\nsamples = 1\nvalue = [0, 3]\nclass = bot", fillcolor="#399de5"] ;
150 -> 164 ;
165 [label="entropy = 0.0\nsamples = 28\nvalue = [0, 48]\nclass = bot", fillcolor="#399de5"] ;
131 -> 165 ;
166 [label="In_degree <= 2.5\nentropy = 0.179\nsamples = 3520\nvalue = [151, 5436]\nclass = bot", fillcolor="#3ea0e6"] ;
0 -> 166 [labeldistance=2.5, labelangle=-45, headlabel="False"] ;
167 [label="diff <= 122412.367\nentropy = 0.222\nsamples = 2479\nvalue = [141, 3803]\nclass = bot", fillcolor="#40a1e6"] ;
166 -> 167 ;
168 [label="batch <= 5928.0\nentropy = 0.109\nsamples = 1530\nvalue = [35, 2394]\nclass = bot", fillcolor="#3c9ee5"] ;
167 -> 168 ;
169 [label="verified <= 0.5\nentropy = 0.113\nsamples = 1458\nvalue = [35, 2273]\nclass = bot", fillcolor="#3c9fe5"] ;
168 -> 169 ;
170 [label="PR <= 0.334\nentropy = 0.139\nsamples = 1119\nvalue = [35, 1746]\nclass = bot", fillcolor="#3d9fe6"] ;
169 -> 170 ;
171 [label="Out_degre <= 7.5\nentropy = 0.127\nsamples = 967\nvalue = [27, 1521]\nclass = bot", fillcolor="#3d9fe5"] ;
170 -> 171 ;
172 [label="diff <= 1526.575\nentropy = 0.173\nsamples = 413\nvalue = [17, 642]\nclass = bot", fillcolor="#3ea0e6"] ;
171 -> 172 ;
173 [label="PR <= 0.172\nentropy = 0.089\nsamples = 166\nvalue = [3, 265]\nclass = bot", fillcolor="#3b9ee5"] ;
172 -> 173 ;
174 [label="entropy = 0.0\nsamples = 73\nvalue = [0, 126]\nclass = bot", fillcolor="#399de5"] ;
173 -> 174 ;
175 [label="lexical_diversity <= 93.542\nentropy = 0.148\nsamples = 93\nvalue = [3, 139]\nclass = bot", fillcolor="#3d9fe6"] ;
173 -> 175 ;
176 [label="entropy = 0.469\nsamples = 22\nvalue = [3, 27]\nclass = bot", fillcolor="#4fa8e8"] ;
175 -> 176 ;
177 [label="entropy = 0.0\nsamples = 71\nvalue = [0, 112]\nclass = bot", fillcolor="#399de5"] ;
175 -> 177 ;
178 [label="In_degree <= 1.5\nentropy = 0.223\nsamples = 247\nvalue = [14, 377]\nclass = bot", fillcolor="#40a1e6"] ;
172 -> 178 ;
179 [label="LTCount <= 5.5\nentropy = 0.287\nsamples = 149\nvalue = [12, 227]\nclass = bot", fillcolor="#43a2e6"] ;
178 -> 179 ;
180 [label="entropy = 0.25\nsamples = 133\nvalue = [9, 207]\nclass = bot", fillcolor="#42a1e6"] ;
179 -> 180 ;
181 [label="entropy = 0.559\nsamples = 16\nvalue = [3, 20]\nclass = bot", fillcolor="#57ace9"] ;
179 -> 181 ;
182 [label="Degree <= 4.5\nentropy = 0.101\nsamples = 98\nvalue = [2, 150]\nclass = bot", fillcolor="#3c9ee5"] ;
178 -> 182 ;
183 [label="entropy = 0.162\nsamples = 54\nvalue = [2, 82]\nclass = bot", fillcolor="#3e9fe6"] ;
182 -> 183 ;
184 [label="entropy = 0.0\nsamples = 44\nvalue = [0, 68]\nclass = bot", fillcolor="#399de5"] ;
182 -> 184 ;
185 [label="DateDiff <= 13308396.0\nentropy = 0.089\nsamples = 554\nvalue = [10, 879]\nclass = bot", fillcolor="#3b9ee5"] ;
171 -> 185 ;
186 [label="entropy = 0.0\nsamples = 94\nvalue = [0, 145]\nclass = bot", fillcolor="#399de5"] ;
185 -> 186 ;
187 [label="l/t <= 0.008\nentropy = 0.103\nsamples = 460\nvalue = [10, 734]\nclass = bot", fillcolor="#3c9ee5"] ;
185 -> 187 ;
188 [label="lexical_diversity <= 98.362\nentropy = 0.043\nsamples = 264\nvalue = [2, 427]\nclass = bot", fillcolor="#3a9de5"] ;
187 -> 188 ;
189 [label="entropy = 0.054\nsamples = 194\nvalue = [2, 325]\nclass = bot", fillcolor="#3a9ee5"] ;
188 -> 189 ;
190 [label="entropy = 0.0\nsamples = 70\nvalue = [0, 102]\nclass = bot", fillcolor="#399de5"] ;
188 -> 190 ;
191 [label="l/t <= 0.008\nentropy = 0.171\nsamples = 196\nvalue = [8, 307]\nclass = bot", fillcolor="#3ea0e6"] ;
187 -> 191 ;
192 [label="entropy = 0.779\nsamples = 9\nvalue = [3, 10]\nclass = bot", fillcolor="#74baed"] ;
191 -> 192 ;
193 [label="entropy = 0.122\nsamples = 187\nvalue = [5, 297]\nclass = bot", fillcolor="#3c9fe5"] ;
191 -> 193 ;
194 [label="l/t <= 0.003\nentropy = 0.216\nsamples = 152\nvalue = [8, 225]\nclass = bot", fillcolor="#40a0e6"] ;
170 -> 194 ;
195 [label="entropy = 0.0\nsamples = 37\nvalue = [0, 57]\nclass = bot", fillcolor="#399de5"] ;
194 -> 195 ;
196 [label="Influence <= 0.096\nentropy = 0.267\nsamples = 115\nvalue = [8, 168]\nclass = bot", fillcolor="#42a2e6"] ;
194 -> 196 ;
197 [label="In_degree <= 1.5\nentropy = 0.197\nsamples = 106\nvalue = [5, 159]\nclass = bot", fillcolor="#3fa0e6"] ;
196 -> 197 ;
198 [label="lexical_diversity <= 37.5\nentropy = 0.353\nsamples = 38\nvalue = [4, 56]\nclass = bot", fillcolor="#47a4e7"] ;
197 -> 198 ;
199 [label="entropy = 0.811\nsamples = 2\nvalue = [3, 1]\nclass = human", fillcolor="#eeab7b"] ;
198 -> 199 ;
200 [label="entropy = 0.129\nsamples = 36\nvalue = [1, 55]\nclass = bot", fillcolor="#3d9fe5"] ;
198 -> 200 ;
201 [label="f/f <= 0.297\nentropy = 0.078\nsamples = 68\nvalue = [1, 103]\nclass = bot", fillcolor="#3b9ee5"] ;
197 -> 201 ;
202 [label="entropy = 0.0\nsamples = 38\nvalue = [0, 59]\nclass = bot", fillcolor="#399de5"] ;
201 -> 202 ;
203 [label="entropy = 0.154\nsamples = 30\nvalue = [1, 44]\nclass = bot", fillcolor="#3d9fe6"] ;
201 -> 203 ;
204 [label="sentiment_score <= 0.667\nentropy = 0.811\nsamples = 9\nvalue = [3, 9]\nclass = bot", fillcolor="#7bbeee"] ;
196 -> 204 ;
205 [label="f/f <= 0.644\nentropy = 0.954\nsamples = 6\nvalue = [3, 5]\nclass = bot", fillcolor="#b0d8f5"] ;
204 -> 205 ;
206 [label="entropy = 0.0\nsamples = 3\nvalue = [0, 4]\nclass = bot", fillcolor="#399de5"] ;
205 -> 206 ;
207 [label="entropy = 0.811\nsamples = 3\nvalue = [3, 1]\nclass = human", fillcolor="#eeab7b"] ;
205 -> 207 ;
208 [label="entropy = 0.0\nsamples = 3\nvalue = [0, 4]\nclass = bot", fillcolor="#399de5"] ;
204 -> 208 ;
209 [label="entropy = 0.0\nsamples = 339\nvalue = [0, 527]\nclass = bot", fillcolor="#399de5"] ;
169 -> 209 ;
210 [label="entropy = 0.0\nsamples = 72\nvalue = [0, 121]\nclass = bot", fillcolor="#399de5"] ;
168 -> 210 ;
211 [label="n/u <= 0.732\nentropy = 0.366\nsamples = 949\nvalue = [106, 1409]\nclass = bot", fillcolor="#48a4e7"] ;
167 -> 211 ;
212 [label="diff <= 2456854.875\nentropy = 0.45\nsamples = 463\nvalue = [72, 693]\nclass = bot", fillcolor="#4ea7e8"] ;
211 -> 212 ;
213 [label="tweet_similarity <= 19.75\nentropy = 0.426\nsamples = 458\nvalue = [66, 693]\nclass = bot", fillcolor="#4ca6e7"] ;
212 -> 213 ;
214 [label="verified <= 0.5\nentropy = 0.471\nsamples = 392\nvalue = [65, 581]\nclass = bot", fillcolor="#4fa8e8"] ;
213 -> 214 ;
215 [label="diff <= 861320.375\nentropy = 0.507\nsamples = 355\nvalue = [65, 514]\nclass = bot", fillcolor="#52a9e8"] ;
214 -> 215 ;
216 [label="batch <= 148461214.0\nentropy = 0.464\nsamples = 321\nvalue = [51, 467]\nclass = bot", fillcolor="#4fa8e8"] ;
215 -> 216 ;
217 [label="Degree <= 8.5\nentropy = 0.458\nsamples = 320\nvalue = [50, 467]\nclass = bot", fillcolor="#4ea7e8"] ;
216 -> 217 ;
218 [label="entropy = 0.686\nsamples = 69\nvalue = [19, 85]\nclass = bot", fillcolor="#65b3eb"] ;
217 -> 218 ;
219 [label="entropy = 0.385\nsamples = 251\nvalue = [31, 382]\nclass = bot", fillcolor="#49a5e7"] ;
217 -> 219 ;
220 [label="entropy = 0.0\nsamples = 1\nvalue = [1, 0]\nclass = human", fillcolor="#e58139"] ;
216 -> 220 ;
221 [label="tweet_similarity <= 19.25\nentropy = 0.777\nsamples = 34\nvalue = [14, 47]\nclass = bot", fillcolor="#74baed"] ;
215 -> 221 ;
222 [label="Influence <= -0.592\nentropy = 0.636\nsamples = 32\nvalue = [9, 47]\nclass = bot", fillcolor="#5fb0ea"] ;
221 -> 222 ;
223 [label="entropy = 0.0\nsamples = 20\nvalue = [0, 34]\nclass = bot", fillcolor="#399de5"] ;
222 -> 223 ;
224 [label="entropy = 0.976\nsamples = 12\nvalue = [9, 13]\nclass = bot", fillcolor="#c2e1f7"] ;
222 -> 224 ;
225 [label="entropy = 0.0\nsamples = 2\nvalue = [5, 0]\nclass = human", fillcolor="#e58139"] ;
221 -> 225 ;
226 [label="entropy = 0.0\nsamples = 37\nvalue = [0, 67]\nclass = bot", fillcolor="#399de5"] ;
214 -> 226 ;
227 [label="n/u <= 0.242\nentropy = 0.073\nsamples = 66\nvalue = [1, 112]\nclass = bot", fillcolor="#3b9ee5"] ;
213 -> 227 ;
228 [label="verified <= 0.5\nentropy = 0.216\nsamples = 17\nvalue = [1, 28]\nclass = bot", fillcolor="#40a0e6"] ;
227 -> 228 ;
229 [label="sentiment_score <= 0.705\nentropy = 0.242\nsamples = 13\nvalue = [1, 24]\nclass = bot", fillcolor="#41a1e6"] ;
228 -> 229 ;
230 [label="entropy = 0.0\nsamples = 10\nvalue = [0, 22]\nclass = bot", fillcolor="#399de5"] ;
229 -> 230 ;
231 [label="Out_degre <= 21.5\nentropy = 0.918\nsamples = 3\nvalue = [1, 2]\nclass = bot", fillcolor="#9ccef2"] ;
229 -> 231 ;
232 [label="entropy = 0.0\nsamples = 2\nvalue = [0, 2]\nclass = bot", fillcolor="#399de5"] ;
231 -> 232 ;
233 [label="entropy = 0.0\nsamples = 1\nvalue = [1, 0]\nclass = human", fillcolor="#e58139"] ;
231 -> 233 ;
234 [label="entropy = 0.0\nsamples = 4\nvalue = [0, 4]\nclass = bot", fillcolor="#399de5"] ;
228 -> 234 ;
235 [label="entropy = 0.0\nsamples = 49\nvalue = [0, 84]\nclass = bot", fillcolor="#399de5"] ;
227 -> 235 ;
236 [label="entropy = 0.0\nsamples = 5\nvalue = [6, 0]\nclass = human", fillcolor="#e58139"] ;
212 -> 236 ;
237 [label="PR <= 0.168\nentropy = 0.266\nsamples = 486\nvalue = [34, 716]\nclass = bot", fillcolor="#42a2e6"] ;
211 -> 237 ;
238 [label="verified <= 0.5\nentropy = 0.192\nsamples = 292\nvalue = [13, 428]\nclass = bot", fillcolor="#3fa0e6"] ;
237 -> 238 ;
239 [label="n/u <= 0.906\nentropy = 0.218\nsamples = 246\nvalue = [13, 360]\nclass = bot", fillcolor="#40a1e6"] ;
238 -> 239 ;
240 [label="Out_degre <= 13.5\nentropy = 0.095\nsamples = 110\nvalue = [2, 163]\nclass = bot", fillcolor="#3b9ee5"] ;
239 -> 240 ;
241 [label="sentiment_score <= 0.133\nentropy = 0.181\nsamples = 51\nvalue = [2, 71]\nclass = bot", fillcolor="#3fa0e6"] ;
240 -> 241 ;
242 [label="LTCount <= 13.0\nentropy = 1.0\nsamples = 2\nvalue = [1, 1]\nclass = human", fillcolor="#ffffff"] ;
241 -> 242 ;
243 [label="entropy = 0.0\nsamples = 1\nvalue = [0, 1]\nclass = bot", fillcolor="#399de5"] ;
242 -> 243 ;
244 [label="entropy = 0.0\nsamples = 1\nvalue = [1, 0]\nclass = human", fillcolor="#e58139"] ;
242 -> 244 ;
245 [label="l/t <= 0.154\nentropy = 0.107\nsamples = 49\nvalue = [1, 70]\nclass = bot", fillcolor="#3c9ee5"] ;
241 -> 245 ;
246 [label="entropy = 0.0\nsamples = 44\nvalue = [0, 65]\nclass = bot", fillcolor="#399de5"] ;
245 -> 246 ;
247 [label="entropy = 0.65\nsamples = 5\nvalue = [1, 5]\nclass = bot", fillcolor="#61b1ea"] ;
245 -> 247 ;
248 [label="entropy = 0.0\nsamples = 59\nvalue = [0, 92]\nclass = bot", fillcolor="#399de5"] ;
240 -> 248 ;
249 [label="LTCount <= 21.5\nentropy = 0.299\nsamples = 136\nvalue = [11, 197]\nclass = bot", fillcolor="#44a2e6"] ;
239 -> 249 ;
250 [label="Influence <= -0.485\nentropy = 0.327\nsamples = 119\nvalue = [11, 173]\nclass = bot", fillcolor="#46a3e7"] ;
249 -> 250 ;
251 [label="lexical_diversity <= 96.847\nentropy = 0.414\nsamples = 90\nvalue = [11, 121]\nclass = bot", fillcolor="#4ba6e7"] ;
250 -> 251 ;
252 [label="entropy = 0.689\nsamples = 28\nvalue = [7, 31]\nclass = bot", fillcolor="#66b3eb"] ;
251 -> 252 ;
253 [label="entropy = 0.254\nsamples = 62\nvalue = [4, 90]\nclass = bot", fillcolor="#42a1e6"] ;
251 -> 253 ;
254 [label="entropy = 0.0\nsamples = 29\nvalue = [0, 52]\nclass = bot", fillcolor="#399de5"] ;
250 -> 254 ;
255 [label="entropy = 0.0\nsamples = 17\nvalue = [0, 24]\nclass = bot", fillcolor="#399de5"] ;
249 -> 255 ;
256 [label="entropy = 0.0\nsamples = 46\nvalue = [0, 68]\nclass = bot", fillcolor="#399de5"] ;
238 -> 256 ;
257 [label="diff <= 124411.125\nentropy = 0.358\nsamples = 194\nvalue = [21, 288]\nclass = bot", fillcolor="#47a4e7"] ;
237 -> 257 ;
258 [label="entropy = 0.0\nsamples = 2\nvalue = [5, 0]\nclass = human", fillcolor="#e58139"] ;
257 -> 258 ;
259 [label="lexical_diversity <= 97.477\nentropy = 0.297\nsamples = 192\nvalue = [16, 288]\nclass = bot", fillcolor="#44a2e6"] ;
257 -> 259 ;
260 [label="DateDiff <= 27171687.0\nentropy = 0.104\nsamples = 97\nvalue = [2, 145]\nclass = bot", fillcolor="#3c9ee5"] ;
259 -> 260 ;
261 [label="lexical_diversity <= 94.66\nentropy = 0.189\nsamples = 52\nvalue = [2, 67]\nclass = bot", fillcolor="#3fa0e6"] ;
260 -> 261 ;
262 [label="batch <= 13252.5\nentropy = 0.764\nsamples = 7\nvalue = [2, 7]\nclass = bot", fillcolor="#72b9ec"] ;
261 -> 262 ;
263 [label="entropy = 0.811\nsamples = 6\nvalue = [2, 6]\nclass = bot", fillcolor="#7bbeee"] ;
262 -> 263 ;
264 [label="entropy = 0.0\nsamples = 1\nvalue = [0, 1]\nclass = bot", fillcolor="#399de5"] ;
262 -> 264 ;
265 [label="entropy = 0.0\nsamples = 45\nvalue = [0, 60]\nclass = bot", fillcolor="#399de5"] ;
261 -> 265 ;
266 [label="entropy = 0.0\nsamples = 45\nvalue = [0, 78]\nclass = bot", fillcolor="#399de5"] ;
260 -> 266 ;
267 [label="tweet_similarity <= 18.25\nentropy = 0.434\nsamples = 95\nvalue = [14, 143]\nclass = bot", fillcolor="#4ca7e8"] ;
259 -> 267 ;
268 [label="n/u <= 0.842\nentropy = 0.665\nsamples = 33\nvalue = [9, 43]\nclass = bot", fillcolor="#62b2ea"] ;
267 -> 268 ;
269 [label="entropy = 0.0\nsamples = 10\nvalue = [0, 11]\nclass = bot", fillcolor="#399de5"] ;
268 -> 269 ;
270 [label="lexical_diversity <= 98.195\nentropy = 0.759\nsamples = 23\nvalue = [9, 32]\nclass = bot", fillcolor="#71b9ec"] ;
268 -> 270 ;
271 [label="entropy = 0.954\nsamples = 12\nvalue = [9, 15]\nclass = bot", fillcolor="#b0d8f5"] ;
270 -> 271 ;
272 [label="entropy = 0.0\nsamples = 11\nvalue = [0, 17]\nclass = bot", fillcolor="#399de5"] ;
270 -> 272 ;
273 [label="n/u <= 0.954\nentropy = 0.276\nsamples = 62\nvalue = [5, 100]\nclass = bot", fillcolor="#43a2e6"] ;
267 -> 273 ;
274 [label="entropy = 0.0\nsamples = 37\nvalue = [0, 64]\nclass = bot", fillcolor="#399de5"] ;
273 -> 274 ;
275 [label="diff <= 298420.375\nentropy = 0.535\nsamples = 25\nvalue = [5, 36]\nclass = bot", fillcolor="#54abe9"] ;
273 -> 275 ;
276 [label="entropy = 0.792\nsamples = 13\nvalue = [5, 16]\nclass = bot", fillcolor="#77bced"] ;
275 -> 276 ;
277 [label="entropy = 0.0\nsamples = 12\nvalue = [0, 20]\nclass = bot", fillcolor="#399de5"] ;
275 -> 277 ;
278 [label="In_degree <= 9.5\nentropy = 0.054\nsamples = 1041\nvalue = [10, 1633]\nclass = bot", fillcolor="#3a9ee5"] ;
166 -> 278 ;
279 [label="PR <= 0.243\nentropy = 0.059\nsamples = 936\nvalue = [10, 1460]\nclass = bot", fillcolor="#3a9ee5"] ;
278 -> 279 ;
280 [label="tweet_similarity <= 19.25\nentropy = 0.02\nsamples = 330\nvalue = [1, 523]\nclass = bot", fillcolor="#399de5"] ;
279 -> 280 ;
281 [label="entropy = 0.0\nsamples = 188\nvalue = [0, 308]\nclass = bot", fillcolor="#399de5"] ;
280 -> 281 ;
282 [label="Influence <= 0.114\nentropy = 0.043\nsamples = 142\nvalue = [1, 215]\nclass = bot", fillcolor="#3a9de5"] ;
280 -> 282 ;
283 [label="entropy = 0.0\nsamples = 134\nvalue = [0, 202]\nclass = bot", fillcolor="#399de5"] ;
282 -> 283 ;
284 [label="Influence <= 0.134\nentropy = 0.371\nsamples = 8\nvalue = [1, 13]\nclass = bot", fillcolor="#48a5e7"] ;
282 -> 284 ;
285 [label="entropy = 0.0\nsamples = 1\nvalue = [1, 0]\nclass = human", fillcolor="#e58139"] ;
284 -> 285 ;
286 [label="entropy = 0.0\nsamples = 7\nvalue = [0, 13]\nclass = bot", fillcolor="#399de5"] ;
284 -> 286 ;
287 [label="Degree <= 14.5\nentropy = 0.078\nsamples = 606\nvalue = [9, 937]\nclass = bot", fillcolor="#3b9ee5"] ;
279 -> 287 ;
288 [label="PR <= 1.127\nentropy = 0.035\nsamples = 526\nvalue = [3, 808]\nclass = bot", fillcolor="#3a9de5"] ;
287 -> 288 ;
289 [label="tweet_similarity <= 0.25\nentropy = 0.019\nsamples = 370\nvalue = [1, 555]\nclass = bot", fillcolor="#399de5"] ;
288 -> 289 ;
290 [label="DateDiff <= 407664496.0\nentropy = 0.323\nsamples = 13\nvalue = [1, 16]\nclass = bot", fillcolor="#45a3e7"] ;
289 -> 290 ;
291 [label="entropy = 0.0\nsamples = 12\nvalue = [0, 16]\nclass = bot", fillcolor="#399de5"] ;
290 -> 291 ;
292 [label="entropy = 0.0\nsamples = 1\nvalue = [1, 0]\nclass = human", fillcolor="#e58139"] ;
290 -> 292 ;
293 [label="entropy = 0.0\nsamples = 357\nvalue = [0, 539]\nclass = bot", fillcolor="#399de5"] ;
289 -> 293 ;
294 [label="In_degree <= 4.5\nentropy = 0.066\nsamples = 156\nvalue = [2, 253]\nclass = bot", fillcolor="#3b9ee5"] ;
288 -> 294 ;
295 [label="l/t <= 0.006\nentropy = 0.137\nsamples = 69\nvalue = [2, 102]\nclass = bot", fillcolor="#3d9fe6"] ;
294 -> 295 ;
296 [label="entropy = 0.0\nsamples = 32\nvalue = [0, 54]\nclass = bot", fillcolor="#399de5"] ;
295 -> 296 ;
297 [label="In_degree <= 3.5\nentropy = 0.242\nsamples = 37\nvalue = [2, 48]\nclass = bot", fillcolor="#41a1e6"] ;
295 -> 297 ;
298 [label="PR <= 1.48\nentropy = 0.235\nsamples = 20\nvalue = [1, 25]\nclass = bot", fillcolor="#41a1e6"] ;
297 -> 298 ;
299 [label="entropy = 0.439\nsamples = 10\nvalue = [1, 10]\nclass = bot", fillcolor="#4da7e8"] ;
298 -> 299 ;
300 [label="entropy = 0.0\nsamples = 10\nvalue = [0, 15]\nclass = bot", fillcolor="#399de5"] ;
298 -> 300 ;
301 [label="f/f <= 0.022\nentropy = 0.25\nsamples = 17\nvalue = [1, 23]\nclass = bot", fillcolor="#42a1e6"] ;
297 -> 301 ;
302 [label="entropy = 0.722\nsamples = 5\nvalue = [1, 4]\nclass = bot", fillcolor="#6ab6ec"] ;
301 -> 302 ;
303 [label="entropy = 0.0\nsamples = 12\nvalue = [0, 19]\nclass = bot", fillcolor="#399de5"] ;
301 -> 303 ;
304 [label="entropy = 0.0\nsamples = 87\nvalue = [0, 151]\nclass = bot", fillcolor="#399de5"] ;
294 -> 304 ;
305 [label="lexical_diversity <= 99.502\nentropy = 0.262\nsamples = 80\nvalue = [6, 129]\nclass = bot", fillcolor="#42a2e6"] ;
287 -> 305 ;
306 [label="Degree <= 19.5\nentropy = 0.156\nsamples = 79\nvalue = [3, 129]\nclass = bot", fillcolor="#3e9fe6"] ;
305 -> 306 ;
307 [label="verified <= 0.5\nentropy = 0.301\nsamples = 34\nvalue = [3, 53]\nclass = bot", fillcolor="#44a3e6"] ;
306 -> 307 ;
308 [label="l/t <= 0.012\nentropy = 0.422\nsamples = 23\nvalue = [3, 32]\nclass = bot", fillcolor="#4ca6e7"] ;
307 -> 308 ;
309 [label="entropy = 0.0\nsamples = 11\nvalue = [0, 17]\nclass = bot", fillcolor="#399de5"] ;
308 -> 309 ;
310 [label="Out_degre <= 17.5\nentropy = 0.65\nsamples = 12\nvalue = [3, 15]\nclass = bot", fillcolor="#61b1ea"] ;
308 -> 310 ;
311 [label="entropy = 0.337\nsamples = 11\nvalue = [1, 15]\nclass = bot", fillcolor="#46a4e7"] ;
310 -> 311 ;
312 [label="entropy = 0.0\nsamples = 1\nvalue = [2, 0]\nclass = human", fillcolor="#e58139"] ;
310 -> 312 ;
313 [label="entropy = 0.0\nsamples = 11\nvalue = [0, 21]\nclass = bot", fillcolor="#399de5"] ;
307 -> 313 ;
314 [label="entropy = 0.0\nsamples = 45\nvalue = [0, 76]\nclass = bot", fillcolor="#399de5"] ;
306 -> 314 ;
315 [label="entropy = 0.0\nsamples = 1\nvalue = [3, 0]\nclass = human", fillcolor="#e58139"] ;
305 -> 315 ;
316 [label="entropy = 0.0\nsamples = 105\nvalue = [0, 173]\nclass = bot", fillcolor="#399de5"] ;
278 -> 316 ;
}